digraph Tree {
node [shape=box, style="filled", color="black", fontname="helvetica"] ;
edge [fontname="helvetica"] ;
0 [label="spore-print-color <= 2.5\ngini = 0.499\nsamples = 6093\nvalue = [2946, 3147]\nclass = 식용", fillcolor="#f2f9fd"] ;
1 [label="gill-size <= 0.5\ngini = 0.21\nsamples = 2917\nvalue = [348, 2569]\nclass = 식용", fillcolor="#54aae9"] ;
0 -> 1 [labeldistance=2.5, labelangle=45, headlabel="True"] ;
2 [label="stalk-shape <= 0.5\ngini = 0.409\nsamples = 488\nvalue = [348, 140]\nclass = 독", fillcolor="#efb489"] ;
1 -> 2 ;
3 [label="population <= 3.5\ngini = 0.287\nsamples = 421\nvalue = [348, 73]\nclass = 독", fillcolor="#ea9b63"] ;
2 -> 3 ;
4 [label="cap-surface <= 1.5\ngini = 0.178\nsamples = 386\nvalue = [348, 38]\nclass = 독", fillcolor="#e88f4f"] ;
3 -> 4 ;
5 [label="gini = 0.0\nsamples = 278\nvalue = [278, 0]\nclass = 독", fillcolor="#e58139"] ;
4 -> 5 ;
6 [label="habitat <= 1.5\ngini = 0.456\nsamples = 108\nvalue = [70, 38]\nclass = 독", fillcolor="#f3c5a4"] ;
4 -> 6 ;
7 [label="gini = 0.0\nsamples = 38\nvalue = [0, 38]\nclass = 식용", fillcolor="#399de5"] ;
6 -> 7 ;
8 [label="gini = 0.0\nsamples = 70\nvalue = [70, 0]\nclass = 독", fillcolor="#e58139"] ;
6 -> 8 ;
9 [label="gini = 0.0\nsamples = 35\nvalue = [0, 35]\nclass = 식용", fillcolor="#399de5"] ;
3 -> 9 ;
10 [label="gini = 0.0\nsamples = 67\nvalue = [0, 67]\nclass = 식용", fillcolor="#399de5"] ;
2 -> 10 ;
11 [label="gini = 0.0\nsamples = 2429\nvalue = [0, 2429]\nclass = 식용", fillcolor="#399de5"] ;
1 -> 11 ;
12 [label="ring-number <= 0.5\ngini = 0.298\nsamples = 3176\nvalue = [2598, 578]\nclass = 독", fillcolor="#eb9d65"] ;
0 -> 12 [labeldistance=2.5, labelangle=-45, headlabel="False"] ;
13 [label="gill-attachment <= 0.5\ngini = 0.122\nsamples = 2691\nvalue = [2515, 176]\nclass = 독", fillcolor="#e78a47"] ;
12 -> 13 ;
14 [label="cap-color <= 6.5\ngini = 0.056\nsamples = 2589\nvalue = [2515, 74]\nclass = 독", fillcolor="#e6853f"] ;
13 -> 14 ;
15 [label="ring-type <= 2.5\ngini = 0.024\nsamples = 2546\nvalue = [2515, 31]\nclass = 독", fillcolor="#e5833b"] ;
14 -> 15 ;
16 [label="gill-spacing <= 0.5\ngini = 0.015\nsamples = 2534\nvalue = [2515, 19]\nclass = 독", fillcolor="#e5823a"] ;
15 -> 16 ;
17 [label="gini = 0.0\nsamples = 2501\nvalue = [2501, 0]\nclass = 독", fillcolor="#e58139"] ;
16 -> 17 ;
18 [label="population <= 4.0\ngini = 0.489\nsamples = 33\nvalue = [14, 19]\nclass = 식용", fillcolor="#cbe5f8"] ;
16 -> 18 ;
19 [label="gini = 0.0\nsamples = 19\nvalue = [0, 19]\nclass = 식용", fillcolor="#399de5"] ;
18 -> 19 ;
20 [label="gini = 0.0\nsamples = 14\nvalue = [14, 0]\nclass = 독", fillcolor="#e58139"] ;
18 -> 20 ;
21 [label="gini = 0.0\nsamples = 12\nvalue = [0, 12]\nclass = 식용", fillcolor="#399de5"] ;
15 -> 21 ;
22 [label="gini = 0.0\nsamples = 43\nvalue = [0, 43]\nclass = 식용", fillcolor="#399de5"] ;
14 -> 22 ;
23 [label="gini = 0.0\nsamples = 102\nvalue = [0, 102]\nclass = 식용", fillcolor="#399de5"] ;
13 -> 23 ;
24 [label="spore-print-color <= 4.5\ngini = 0.284\nsamples = 485\nvalue = [83, 402]\nclass = 식용", fillcolor="#62b1ea"] ;
12 -> 24 ;
25 [label="ring-type <= 2.5\ngini = 0.122\nsamples = 430\nvalue = [28, 402]\nclass = 식용", fillcolor="#47a4e7"] ;
24 -> 25 ;
26 [label="gini = 0.0\nsamples = 402\nvalue = [0, 402]\nclass = 식용", fillcolor="#399de5"] ;
25 -> 26 ;
27 [label="gini = 0.0\nsamples = 28\nvalue = [28, 0]\nclass = 독", fillcolor="#e58139"] ;
25 -> 27 ;
28 [label="gini = 0.0\nsamples = 55\nvalue = [55, 0]\nclass = 독", fillcolor="#e58139"] ;
24 -> 28 ;
}